<?xml version="1.0"?>
<opencv_storage>
<cascade>
  <stageType>BOOST</stageType>
  <featureType>HAAR</featureType>
  <height>24</height>
  <width>24</width>
  <stageParams>
    <boostType>GAB</boostType>
    <minHitRate>9.9500000476837158e-01</minHitRate>
    <maxFalseAlarm>5.0000000000000000e-01</maxFalseAlarm>
    <weightTrimRate>9.4999998807907104e-01</weightTrimRate>
    <maxDepth>1</maxDepth>
    <maxWeakCount>100</maxWeakCount></stageParams>
  <featureParams>
    <maxCatCount>0</maxCatCount>
    <featSize>1</featSize>
    <mode>BASIC</mode></featureParams>
  <stageNum>5</stageNum>
  <stages>
    <!-- stage 0 -->
    <_>
      <maxWeakCount>2</maxWeakCount>
      <stageThreshold>0.</stageThreshold>
      <weakClassifiers>
        <_>
          <internalNodes>
            0 -1 11 1.1141698062419891e-01</internalNodes>
          <leafValues>
            -9.9600797891616821e-01 1.</leafValues></_>
        <_>
          <internalNodes>
            0 -1 0 -8.8442757725715637e-02</internalNodes>
          <leafValues>
            1. -1.</leafValues></_></weakClassifiers></_>
    <!-- stage 1 -->
    <_>
      <maxWeakCount>3</maxWeakCount>
      <stageThreshold>-1.1003088951110840e+00</stageThreshold>
      <weakClassifiers>
        <_>
          <internalNodes>
            0 -1 2 9.0733662247657776e-02</internalNodes>
          <leafValues>
            -9.9203187227249146e-01 1.</leafValues></_>
        <_>
          <internalNodes>
            0 -1 1 -2.6681104302406311e-01</internalNodes>
          <leafValues>
            9.1234493255615234e-01 -9.8554617166519165e-01</leafValues></_>
        <_>
          <internalNodes>
            0 -1 7 -2.6708513498306274e-01</internalNodes>
          <leafValues>
            8.7726908922195435e-01 -9.4043385982513428e-01</leafValues></_></weakClassifiers></_>
    <!-- stage 2 -->
    <_>
      <maxWeakCount>2</maxWeakCount>
      <stageThreshold>-1.5053926408290863e-01</stageThreshold>
      <weakClassifiers>
        <_>
          <internalNodes>
            0 -1 12 9.7988083958625793e-02</internalNodes>
          <leafValues>
            -9.8805969953536987e-01 8.3333331346511841e-01</leafValues></_>
        <_>
          <internalNodes>
            0 -1 6 -8.9872956275939941e-02</internalNodes>
          <leafValues>
            1. -9.8387259244918823e-01</leafValues></_></weakClassifiers></_>
    <!-- stage 3 -->
    <_>
      <maxWeakCount>3</maxWeakCount>
      <stageThreshold>-1.5697077512741089e+00</stageThreshold>
      <weakClassifiers>
        <_>
          <internalNodes>
            0 -1 5 2.0546833053231239e-02</internalNodes>
          <leafValues>
            -9.8807156085968018e-01 1.</leafValues></_>
        <_>
          <internalNodes>
            0 -1 9 -9.8752453923225403e-03</internalNodes>
          <leafValues>
            3.1599688529968262e-01 -9.7112405300140381e-01</leafValues></_>
        <_>
          <internalNodes>
            0 -1 10 -8.6894893320277333e-04</internalNodes>
          <leafValues>
            3.8948789238929749e-01 -8.9115780591964722e-01</leafValues></_></weakClassifiers></_>
    <!-- stage 4 -->
    <_>
      <maxWeakCount>3</maxWeakCount>
      <stageThreshold>-1.4531983137130737e+00</stageThreshold>
      <weakClassifiers>
        <_>
          <internalNodes>
            0 -1 4 9.2413127422332764e-02</internalNodes>
          <leafValues>
            -9.8803591728210449e-01 5.7142859697341919e-01</leafValues></_>
        <_>
          <internalNodes>
            0 -1 3 1.3338005542755127e-01</internalNodes>
          <leafValues>
            -9.3585759401321411e-01 7.9704463481903076e-01</leafValues></_>
        <_>
          <internalNodes>
            0 -1 8 -4.3083120137453079e-02</internalNodes>
          <leafValues>
            4.7069522738456726e-01 -9.5749384164810181e-01</leafValues></_></weakClassifiers></_></stages>
  <features>
    <_>
      <rects>
        <_>
          0 0 8 20 -1.</_>
        <_>
          4 0 4 20 2.</_></rects>
      <tilted>0</tilted></_>
    <_>
      <rects>
        <_>
          0 0 24 14 -1.</_>
        <_>
          0 7 24 7 2.</_></rects>
      <tilted>0</tilted></_>
    <_>
      <rects>
        <_>
          0 11 8 10 -1.</_>
        <_>
          4 11 4 10 2.</_></rects>
      <tilted>0</tilted></_>
    <_>
      <rects>
        <_>
          0 19 15 4 -1.</_>
        <_>
          5 19 5 4 3.</_></rects>
      <tilted>0</tilted></_>
    <_>
      <rects>
        <_>
          2 12 8 8 -1.</_>
        <_>
          6 12 4 8 2.</_></rects>
      <tilted>0</tilted></_>
    <_>
      <rects>
        <_>
          4 15 1 8 -1.</_>
        <_>
          4 19 1 4 2.</_></rects>
      <tilted>0</tilted></_>
    <_>
      <rects>
        <_>
          7 1 10 9 -1.</_>
        <_>
          7 4 10 3 3.</_></rects>
      <tilted>0</tilted></_>
    <_>
      <rects>
        <_>
          7 3 15 20 -1.</_>
        <_>
          12 3 5 20 3.</_></rects>
      <tilted>0</tilted></_>
    <_>
      <rects>
        <_>
          7 3 16 6 -1.</_>
        <_>
          7 3 8 3 2.</_>
        <_>
          15 6 8 3 2.</_></rects>
      <tilted>0</tilted></_>
    <_>
      <rects>
        <_>
          9 8 6 3 -1.</_>
        <_>
          9 9 6 1 3.</_></rects>
      <tilted>0</tilted></_>
    <_>
      <rects>
        <_>
          9 15 2 2 -1.</_>
        <_>
          9 15 1 1 2.</_>
        <_>
          10 16 1 1 2.</_></rects>
      <tilted>0</tilted></_>
    <_>
      <rects>
        <_>
          12 0 8 24 -1.</_>
        <_>
          16 0 4 24 2.</_></rects>
      <tilted>0</tilted></_>
    <_>
      <rects>
        <_>
          13 14 10 10 -1.</_>
        <_>
          13 19 10 5 2.</_></rects>
      <tilted>0</tilted></_></features></cascade>
</opencv_storage>
